solver_type L2R_L2LOSS_SVC_DUAL
nr_class 2
label 1 -1
nr_feature 2000
bias -1
w
-0.001829065336377408 
0.004591848764386886 
-0.007255901676995861 
0.002369303109233834 
-0.0044493952532878 
-0.008194975286653606 
0.01940877020458687 
-0.01850178961258363 
0.002482889194439428 
0.006124626188374668 
-0.004850259458158381 
0.01166494312481177 
0.01207475208220973 
0.01679414133660963 
-0.01616522022372916 
-0.01537084031068436 
-0.008838947812602086 
-0.003747393222499487 
0.003172040087359871 
0.0183709850235925 
0.006878187132953918 
-0.001574165745494873 
-0.03163855328524997 
-0.02447428478487978 
-0.006037950847063427 
-0.00339884403909868 
0.01889270622246422 
0.001070690783198428 
0.02467281447117716 
0.01500303660764368 
-0.0174004985880827 
-0.04069517304883039 
0.00318906583006971 
0.007616773992926195 
0.03822687573009521 
0.02527591002677621 
0.007081667319859135 
0.01646471584161241 
-0.03033690168318107 
-0.02854855696464569 
0.01542434257505994 
0.02610905895711952 
0.008296842840553303 
-0.01927021684834848 
0.03418642729498025 
0.01303620150989837 
-0.03806052556499163 
-0.008306684862490846 
0.03982638011650502 
0.009619913864092496 
0.01192857864239752 
-0.01668971525257885 
0.004088807427220086 
-0.01137297172689823 
-0.01828360115913188 
-0.01281550047625684 
0.01975916787750622 
0.01612862909204814 
0.01206449855786658 
-0.01752929385564793 
-0.01502275581586277 
-0.00501748946179589 
-0.02929600256177304 
0.01372762385139705 
0.002148360905064524 
-0.01756520746645992 
0.004309069730526617 
-0.02226971467894951 
-0.02089774587215559 
-0.01092336914974444 
0.02270368884932982 
0.0165823770929953 
-0.01153727423469353 
-0.01641989529977887 
0.008096805009636356 
-0.006685136127419563 
-0.01057689822122896 
-0.01071274022478314 
-0.006053497526702594 
-0.01696321160973781 
-0.008067356948551581 
-0.01806233631499 
0.01145558949814945 
0.005623450979281198 
0.01099946127474079 
0.003738089585009213 
0.003736099500727386 
-0.0006788030330908639 
-0.00775916317000031 
-0.003431001058935284 
0.02121726455862325 
0.00385605815996597 
-0.007807668113217124 
0.009734878583046181 
-0.003047670222759129 
-0.01184860520024096 
-0.001008743091624207 
0.006517184901553534 
0.02046682837772542 
0.004882812449976075 
-0.01511689095877626 
-0.003450879821181171 
-0.01430401598485499 
-0.01137111630825568 
0.01773153559958846 
0.008427171370569328 
0.006264294984621489 
-0.01944800498976497 
0.01807817184613405 
0.007978889020693448 
-0.03167309606745333 
-0.02329797708013822 
0.04424639282587624 
0.03440510317242174 
-0.003258452979122542 
-0.004717821092332985 
-0.003395842539477933 
0.007310857345857962 
-0.008184481583694975 
0.001833756794989691 
0.03395394949888494 
0.01829503508219453 
-0.001742647567683948 
-0.02336163880846898 
-0.01110802595880615 
0.001520470363612249 
-0.0141565299053345 
0.01277688153506025 
0.02676788684602576 
0.006522634608226802 
-0.002291415994730808 
-0.005991715429841706 
-0.002958378428984695 
0.006346120250101587 
-0.01536529560085087 
0.001710443590494415 
0.01465128174877382 
-0.008477757460598324 
0.007952468145805995 
-0.03060683085016966 
-0.02132000793732388 
0.009342534065735065 
-0.003627740249285694 
0.01912125144437313 
-0.0007637061056021729 
-0.01609655581451112 
0.01044335756552788 
-0.01648916774628558 
-0.02453246072698448 
0.007904278101763539 
0.01046850526451068 
0.01248608419803171 
-0.007497276394082358 
-0.01097198957812072 
0.008008817898346258 
-0.01019982898539595 
-0.009918730868147201 
-0.001016472860388375 
0.004369458441030848 
-0.006600735663104854 
-0.002690611722746157 
-0.01070820997100798 
0.007993128429493034 
-0.01889599452026519 
-0.004777192301945559 
-0.00347444997033378 
0.01943077711278944 
-0.0008747602478318339 
0.003360720787569176 
-0.01179137726289438 
0.01211810198730763 
0.01205543348915548 
0.00380848917510035 
0.001765035351847488 
0.001622753296356161 
-0.009699437889529891 
0.0111471672246599 
-0.0002491927265650923 
-0.005273119453643827 
0.003173450866968995 
-0.007774872403348445 
-0.001285924909992896 
-0.00472674979385624 
0.005131860012363736 
0.01575211931975747 
-0.02035694498305669 
-0.008292533934049048 
-0.01832008471312654 
0.001818113807938989 
0.02646452780485897 
0.003149243818536763 
-0.009328975312574322 
0.009508132562172382 
0.001038681085822223 
0.00119657126899148 
-0.02166754074767283 
0.003294132775270221 
0.03613204237600769 
0.004016655781372136 
-0.03708335737958725 
0.01796815281059976 
0.01564979724270891 
0.01307887650133602 
-0.0004825494911113217 
0.01311327713967906 
0.01971094378908058 
-0.03587508991472242 
-0.006208389003441718 
0.03969296381231948 
0.01471838305975836 
0.02051493764970436 
-0.005195888689403583 
-0.003706741818682968 
0.001917658898354581 
-0.02099307321785662 
0.01227884592838121 
0.03325542370107975 
0.01392491354352794 
0.0205395881343515 
-0.02055597201193921 
-0.02289030335533409 
0.004329569302405745 
-0.01731289482402499 
0.01272957961001608 
0.01936793910024382 
0.001300230012918798 
0.007815291593017108 
-0.02431250706946997 
-0.02362272878395617 
0.004929528476550855 
-0.02215262900236269 
0.01848138495587148 
0.006154422906251414 
-0.00637184813592649 
0.00706234267289894 
-0.005889288660546744 
-0.02251446088474094 
0.004743626688867558 
-0.01296307449597102 
-0.005428729893424031 
0.002265109095055013 
0.00484147026765632 
0.01173876232725564 
0.002737153043234777 
-0.002071943014690576 
-0.004390578271468643 
-0.003051889943772657 
0.007174648287768825 
0.01157003925655938 
9.331074319507758e-05 
0.007096474569489066 
0.0132897598662309 
0.01475422521737239 
-0.01570255878867328 
0.008520741310922729 
-0.01372000113515961 
-0.01132089651531854 
-0.01536495208906706 
-0.02075768498051055 
0.006793934473844908 
0.03372781302166437 
0.01740548675946011 
0.0001414348808404601 
-0.02158822486849729 
0.01529438898387727 
-0.01121217749569953 
-0.01083076731182761 
0.006955382854529023 
0.02423116545539306 
0.02180362499463251 
-0.01699600708273131 
-0.04924120235099298 
9.471207041030211e-05 
0.01399140518272337 
-0.01121250992705893 
0.02382706447121545 
0.03498697006705335 
0.04790055749116905 
-0.02347383926272234 
-0.03864560643105158 
0.005287414873809815 
0.0185378563576334 
-0.006748424983399728 
-0.004309062435939034 
0.03174663214043522 
0.04325511172637627 
-0.03685846243410877 
-0.03812110930624968 
0.02829217386307026 
0.02197292011613053 
0.008347796675127726 
0.01338270543004853 
0.02316452127251849 
-0.006068843157837148 
-0.01949074991236802 
-0.005045395175096631 
0.01599123095943425 
0.01918070828603674 
0.00281671810689043 
-0.001668307464561093 
-0.003999921419473782 
-0.001439949665610329 
-0.007884126495129639 
0.004431150279809378 
0.0183784607424364 
-0.005291392796773832 
0.01196237755465024 
-0.01234173606901863 
-0.02314542291416998 
-0.00627751570693888 
0.00645169910985897 
0.0209862080552654 
0.001768184014178164 
-0.003036697753166633 
0.006087294629033643 
0.004059129943497271 
-0.00368962914274855 
-0.001070414915142869 
-0.01025690554327178 
0.005084830113223273 
0.01130441819450351 
0.005090978479005724 
0.003675654083616835 
-0.001362778937496447 
-0.004788626901567304 
-0.01152562949984663 
0.009155391855024224 
0.004206698458343743 
0.01958042240853725 
0.005890799710564303 
0.0003218760606003005 
0.002571334510566678 
0.005371292247847962 
-0.001563073906423689 
-0.003858911217494672 
-0.01300212111133753 
-0.01188547797605207 
0.006334095250878928 
0.004181020033996686 
-0.0187325619700894 
0.008170740546409155 
0.03127233524085894 
-0.002312554723814393 
-0.009603349502193201 
-0.01830522029625005 
0.004910347099739015 
-0.01482609188030847 
-0.01029842617376403 
0.01884090153953845 
0.02631667581608298 
0.01569245327305943 
-0.0406024072797889 
9.744851206974223e-05 
0.0003714607190183822 
-0.008441132355591765 
-0.01963488315122388 
0.01985605903003502 
0.05740963165121101 
0.003427168496115348 
-0.01564038401460617 
0.03113918881550669 
0.02095951875651921 
-0.02478992324250455 
-0.04207289878123069 
0.0137321118532401 
0.02918366191271734 
-0.01708141372967914 
-0.02697878451604476 
0.03139590268558744 
0.02405388244427796 
0.009657584817806986 
-0.009003354342722546 
0.001378285958637792 
-0.006861275598808046 
-0.02820842700251192 
-0.005846376075896705 
0.02484090888514286 
0.02501681944416035 
-0.003845982959361496 
-0.004554903285821526 
-0.009657194661921062 
-0.0073398658319997 
-0.01091019499065657 
0.002537274207242016 
0.02728331944106396 
0.001981706260068849 
-0.009328987111107571 
-0.01611817077346955 
-0.002332368956901893 
0.0005613462475238632 
-0.006025317234608746 
0.0287560376508574 
0.009431842407497974 
-0.008412051623999349 
0.001454113626352081 
-0.01082088358284159 
-0.01779979057102317 
0.002918969078834921 
0.007115957070629626 
-0.002389969794665491 
0.01199359353352743 
0.001531987160954743 
0.02464997605797033 
-0.004554703434161484 
-0.001802195828708844 
-0.02227164362958017 
-0.01464299120439339 
-0.007633331911816221 
-0.001882008829432297 
0.003124074509083523 
0.002888974121757223 
-0.002393443136744007 
-0.005631506244818624 
-0.008938255567012788 
0.01687694650617787 
-0.01709263205602699 
-0.01396750708349369 
-0.0144795561086898 
0.001344775906594048 
-0.008798677437711578 
0.01002081820753215 
0.03377212322456483 
0.0176103019835573 
-0.02632802444176566 
-0.01546619420508184 
-0.02510033931685115 
-0.02420919987763182 
-0.02691763243804177 
0.007323027284181196 
0.03955534703111134 
0.03549582273297297 
-0.01957606561617728 
0.01258673446482374 
-0.01305464927546379 
-0.01676246745445895 
-0.0350882826501271 
-0.01399099796800206 
0.03743877996128622 
0.03264628790038254 
0.02244619149310614 
0.01311997697490008 
-0.008373763744785599 
-0.02174524030104747 
-0.01115614588378787 
-0.002167202633087237 
0.01650969557611339 
0.003599932848428562 
-0.005376241941288148 
0.03027589453113062 
0.001495563135298149 
-0.006248730474339979 
-0.003722010303475158 
-0.002810903280812522 
-0.004684808474078299 
-0.008035430709122219 
0.02539529243971093 
0.02685085481782478 
0.005655384258388279 
0.0006753345002562975 
0.004435481354754129 
-0.01789856779753966 
-0.02100642744515995 
-0.02908389199820824 
0.01396351044489902 
0.01247238349074528 
0.01146732352591939 
-0.01789604694891116 
-0.0001141197544822205 
-0.001765717959079521 
-0.02105400649713261 
-0.001306952024362363 
0.02033814166002043 
-0.006615628581760101 
-0.008441945987837681 
-0.00693978716417568 
-0.002941427461567605 
-0.003034317028804491 
0.002014899555757942 
0.007918300772097608 
0.002807976854744689 
-0.002035607069472926 
-0.0002120545728485712 
0.008828274104977848 
0.01047622021941829 
0.001942907118503788 
-0.01470372155989017 
-0.02430721875511761 
0.00170654059306071 
0.002874550470379873 
0.001183333181503361 
0.009855384960850144 
0.009245169696049721 
-0.006807787081822006 
-0.0241196390664233 
1.287920668980951e-05 
-0.01159291160205622 
-0.01701364380158077 
-0.008647630086914512 
-0.002164905605514068 
-0.006212177539625358 
0.001157946392043869 
0.03605585837101564 
0.00599129763780084 
0.002496563430680232 
0.002427021974821704 
-0.004898534427942227 
0.004808802713069232 
-0.01686219524012871 
0.01222367090661019 
-0.0003816387250453945 
0.00851895728867583 
0.01279147872894646 
0.008836698813799542 
-0.007957055438379254 
-0.004000150879504985 
-0.01981454076225625 
-0.01171986575926806 
0.01365545970230159 
0.01324117695867046 
0.02061680573527032 
-0.01108172842252525 
-0.002289707594755196 
-0.01548958740738612 
-0.02147113493688901 
-0.01506758399440218 
-0.004739514819329025 
0.02535494113474708 
0.01728171282958672 
0.02181507780633195 
-0.002579824135298028 
0.00230851405527566 
-0.01198504495398268 
-0.02221503043262443 
-0.01234450502682982 
0.004135489739236873 
0.02656404528564187 
0.01477726391357983 
0.01447706836976649 
0.01414205542416987 
-0.007010691234660527 
-0.01185249353654354 
-0.01276636152395462 
-0.001131626168102187 
0.01094296038418054 
0.00871253403516819 
-0.002737505296466065 
0.003453879010245056 
-0.002673575581452683 
-0.01682566391145187 
-0.02383994089644132 
-0.006933672318703301 
0.00412922666530316 
-0.009833834283091559 
-0.005592417625245647 
0.003040691910953589 
-0.001180128123957526 
0.002940775585088053 
-0.003809077721233856 
-0.01091458796866674 
0.0157901236999778 
-0.004203576264462649 
-0.000873312454124119 
0.01582474037782854 
-0.002173643339290887 
0.002374339604233291 
0.004422950702196202 
-0.01196257258791569 
-0.01178060908651901 
-0.006672328035526476 
-0.01598765420318579 
-0.003735525446226066 
-0.01217012689785725 
0.01045169826056818 
0.003285185986428794 
-0.006666866932112973 
-0.009965349863618102 
0.007624865824906949 
-0.0007771612201645709 
-0.00609725835808685 
-0.009362184925598149 
0.007470074211322964 
0.01501019211324254 
-0.003328650735787014 
0.01003053117552904 
0.00896121407522554 
-0.006566196688284535 
-0.01195371901407971 
-0.02150738982664366 
-0.01379853147288329 
-0.004406872927101473 
0.008728216205566181 
0.003387582081673348 
0.008971891142558126 
-0.0007313589914588852 
0.00427014455996396 
-0.01105350726874395 
-0.008074142623339471 
0.01563316978665223 
0.002072201340464938 
0.02837155583800752 
0.006040645562023995 
7.537525849069801e-05 
-0.01458567670121147 
-0.02014158101472377 
-0.01796363092358172 
-0.008736874807547899 
0.01084341970605786 
0.01536495901758152 
0.01685120833958655 
0.005105827210672916 
-0.001620715597855991 
0.002632225466308621 
-0.01019788548461953 
-0.01008670100179454 
-0.003020350207171059 
0.02037098738900338 
0.0154998597415647 
-0.007284801149203 
-0.0001664873775004032 
0.006769158760276235 
-0.02547689877735221 
-0.01117120269574277 
0.002889475057936163 
0.03856605557132074 
0.009338618732091759 
-0.00247501976151675 
-0.007585053444328537 
-0.009421573075253924 
-0.008492254267034888 
-0.007568861274441989 
0.002430640416285524 
-0.009783816119751239 
-0.008418637752701786 
-0.0148830851554333 
0.01309418085871924 
0.0107281687444212 
0.003126101989855926 
0.008319051682575242 
-0.01585170236953809 
-0.001822150613206171 
-0.004957347651914721 
-0.004774948061757372 
0.02418974661392178 
-0.0002827843476619153 
-0.005513799354958358 
0.006682951001230927 
0.000924355257783835 
-0.01050868949248892 
-0.005350794446341603 
0.0001072291519415533 
0.004613726284272355 
-0.01881362827776419 
0.0004302193095051086 
0.01923005141672803 
-0.009172964497517489 
0.001932587594328807 
-0.004824589805309339 
-0.006302320786450473 
-0.01418827450447613 
-0.01672054321526517 
-0.006119596427191209 
0.02787372560142498 
0.003217397248331716 
0.0209219746570333 
0.00386936550979058 
-0.01244200952908768 
0.01493952152305098 
-0.01697357945750701 
-0.004105206670461305 
0.01023143155106911 
0.00667285117015292 
0.0009183246906097126 
-0.00153673242715822 
-0.002187440402533091 
0.005752969310275336 
0.0003163429285367736 
-0.004180752027572863 
0.03611002323239235 
-0.006360237538080865 
0.01287196433621849 
0.006172026816830242 
0.004119437984387974 
-0.0152346396115471 
-0.006414100936346602 
-0.0007060388056258234 
0.01132229342961605 
0.008587157788629295 
-0.004067558255929856 
0.006817860004378114 
-0.005588695653254202 
-0.01063007825087982 
0.003977762154683306 
0.010309087518813 
0.000809021846160784 
0.00883726506863179 
0.005163162553538548 
0.004818267342775928 
0.0003089345716838506 
-0.0009074652627292116 
-0.01275971109185683 
0.01071234544254362 
0.005879521843682504 
0.0002725422080757007 
-0.002462091757423607 
-0.01931736217257043 
-0.005932323349025161 
-0.01234033978068233 
-0.003569757941716827 
0.02117977038242306 
0.02297557353780021 
0.001655896713360948 
0.008923941965158949 
0.001680254031006995 
-0.01807952580182884 
0.006385210928160499 
-0.01066766448330079 
0.007522480267303227 
-0.009715915319009623 
-0.02443676047766006 
-0.002909097242706793 
-0.007857104032211451 
-0.01140783099134751 
0.01973754519980326 
0.01738994863695403 
-0.0115281361994844 
0.01601239400611165 
-0.007154555907418651 
-0.01188647676052708 
0.0007046656930638814 
-0.002496331960892687 
0.01051510607745634 
-0.02167024141933973 
0.001417595295688356 
0.01383120212562289 
0.005517931603335563 
0.002817033795439874 
0.01995568346830308 
0.01544492026502381 
0.007217726129376963 
-0.02157299219499368 
0.01793312951145305 
0.003049616450824483 
-0.006647128742731474 
-0.003254981133284953 
0.01920899293628449 
-0.01366459075419119 
-0.003935009720024568 
-0.007869904833220037 
0.00104966876421499 
0.01483245231394707 
-8.864154709632432e-05 
-0.002906460821462641 
-0.002339855592939982 
-0.007123300043138788 
-0.01086157231080528 
-0.0001528299471290798 
-0.005919383383209449 
0.02099430326682322 
0.01372449104869926 
-0.0007673396266828038 
0.01551535550857949 
-0.002350831682855679 
-0.009747877826713656 
-0.002993845928886002 
0.001095810075073798 
0.02966982617922707 
0.01166804122127944 
-0.005266204302032389 
0.01231840270431448 
0.0004540319731372586 
-0.01364750120347801 
0.007536238237589068 
0.01882100446113288 
0.01203067394173551 
-0.009024024712754713 
-0.02553345020435657 
0.01170657537615767 
0.01357833371285727 
0.005991742795557582 
0.004899688209419066 
0.004657169677317609 
0.01117003851014327 
-0.01900602539225058 
0.01918056184586974 
0.01242634013389146 
0.0009932164514620363 
0.006129400020566693 
-0.005859103963396545 
0.002209946979030018 
0.006226109510479108 
-0.02263344350811047 
-0.01013018940222731 
0.01833119064308675 
0.0164949478516681 
0.009730233763052635 
0.006033753562408098 
0.008864282732547859 
-0.00653392998308472 
-0.01870636483532151 
-0.01302975919772713 
0.00474082734774824 
0.006818853092484348 
0.01000507033063118 
0.004000383322346283 
0.01351254874808701 
0.01016088832151623 
0.02257432462320669 
-0.01894024611677208 
0.0006616641420404278 
0.008103070954011748 
0.01308587300172196 
-0.02321927036322279 
0.001751684263398917 
0.00317114774044962 
0.03209543219782133 
0.005574078593583733 
-0.002501508162635558 
0.003235600926170098 
-0.0006645520442814132 
0.004220012927276714 
-0.001186550016744926 
0.006766317633227999 
0.01439342818502696 
-0.002628272893033638 
-0.004602364399383789 
-0.008977746998834716 
-0.002958798486503625 
-0.01817183958133766 
-0.01568172220706656 
0.02119092606541584 
0.02075193874872139 
-0.006522776141958573 
-0.01367435615346321 
-0.01086131086516675 
-0.01218745220917613 
-0.00654583363395895 
-0.0149600397148974 
0.01323712210752192 
0.04450644665983681 
-0.01525527161025798 
0.01143791421251898 
-0.01719637264035385 
-0.02325704224931336 
-0.01999191180396518 
0.01789207401440917 
0.02062318044372882 
0.01750824873460358 
0.01155375329904908 
0.01765765855574392 
0.002584419027319749 
-0.0156291054081111 
-0.004930718507643816 
0.00540620879698193 
0.008423880207708588 
0.01924837965240694 
-0.004011540153268127 
0.02023079773931763 
0.004887855793440993 
0.0153628774115123 
-0.01476995346287169 
0.00181234834935942 
-0.002645478187360488 
-0.00275840703129914 
-0.01490446149761705 
0.02377310436921055 
0.005236365748054641 
0.02055939436308101 
-0.01216152004258241 
0.006937715605079075 
0.003137977399024858 
-0.01208930306851337 
-0.02283351789766643 
-0.002855711367420025 
0.008028187416487342 
0.03864941179771954 
0.01304644692858982 
0.03043565468627883 
0.002759489328643129 
-0.02837536992778621 
-0.01239326310556205 
0.01802965323633507 
0.02381955112313769 
0.004802548878075046 
0.01438108411474863 
0.02048175361408301 
0.01669755042137474 
-0.004469014336174998 
-0.006227920422158478 
0.00677458939558628 
0.01666873984855063 
-0.009267172394293664 
-0.01601391479362497 
0.006758804755962198 
0.02269019364371718 
0.01377338432725389 
-1.649337682160954e-05 
-0.001618341695483396 
0.003895824872187437 
-0.001157498233418448 
-0.0151400583410457 
0.01323759787711838 
0.01562837826428898 
0.02167365098872285 
0.005218425988511487 
-0.01576410634239259 
-0.003702973522581253 
-0.01585703015524276 
-0.01892435086978234 
0.004885531452354667 
0.03053532907616846 
0.01908772538702185 
-0.008366858255382128 
-0.002016301759703001 
-0.01350436753833258 
-0.01911357165107349 
-0.03752563844378494 
0.004350674378077923 
0.04253052647267928 
0.03657993805019592 
-0.00438507254794846 
0.004355561831584115 
-0.007219014668608623 
-0.01327418836916471 
-0.009410481688824426 
-0.004017566351471212 
0.02565355613364922 
0.003563085804564773 
0.003307735538698603 
0.01899577821132132 
0.02421475270138524 
-0.003830218369546879 
-0.01938863486394442 
0.008585690102409947 
-0.00240294852525629 
0.002673912389994142 
-0.0002260769308768243 
0.01302742183306185 
0.02283223749474383 
0.004968694724604545 
-0.01159809127836255 
0.0006670507119248496 
0.003937204270818251 
-0.0068571301725624 
-0.01358725408120378 
0.02396571368187215 
0.01969747030587652 
0.00594770703948924 
-0.02235198637579571 
0.000832558597731062 
0.009724044895354157 
0.006254468968154025 
-0.02779830499470709 
0.005820096767855472 
0.0167944685174629 
0.01644091162723646 
-0.01472713340090991 
0.007569775829112902 
0.008517915027142135 
0.002514322486643765 
-0.03744717310564263 
0.004936691737023057 
0.02223027704074321 
0.0270479647436067 
0.01945345277257764 
0.008376082672222097 
0.00689811785100727 
-0.007347023521481194 
0.00697546080640286 
-0.005250335281039136 
0.007681934223399229 
0.001835122359500119 
-0.006732965400261841 
-0.01023034823140074 
0.002619846356780165 
0.01606917828137996 
-0.02256004435435674 
0.006313820018111198 
0.008206179174068885 
0.006732820664477823 
0.004082796410285879 
0.00301102682376663 
0.0160700721903257 
0.01893316226222461 
-0.01216468395746462 
0.01387392926693524 
0.008860689424870356 
-0.03094344369439563 
-0.01180275337764914 
0.01317435634760017 
0.03693593634837829 
0.02436681642376035 
0.002040391026889991 
-0.003901526140640003 
0.001653750426220171 
-0.03674881921040362 
-0.03051096660841651 
0.01900719986904399 
0.04649085056533291 
0.02881401162382639 
-0.001861576931139753 
0.005958076359205824 
0.00407871854058137 
-0.02766642551206547 
-0.01101808590387863 
0.01304660409704827 
0.02600431719082014 
0.03029677658032156 
-0.001982582634030828 
0.04168602890183308 
-0.007458973011664579 
-0.01298342614223308 
0.004011030340305883 
0.02713205327618208 
0.01983615879975445 
0.01648323475119148 
-0.01491457421946204 
0.001323158477336706 
-0.006148521400841155 
-0.007817608677815162 
0.004181513193800746 
0.01756134322766653 
0.02610996829334256 
0.02157367323874688 
-0.02300628783757455 
-0.0009722978367942376 
0.002384463258655786 
0.01528409524155521 
-0.01639147910798086 
0.01328940253395345 
0.0302041714997044 
-0.0139742255408816 
-0.03360907827055596 
0.001866317741116022 
-0.009614780827788195 
0.01818172545643588 
-0.005888750444844642 
0.01726874080901664 
0.005223612350794353 
-0.01022702104025924 
-0.02388191331820897 
-0.007838705769793902 
0.01256751386589323 
-0.007629758031761723 
0.03084492876261981 
0.00992042197169022 
-0.0003038344347081637 
0.01404677455476655 
0.006664885107841815 
-0.01368188793102595 
-0.03476657771821905 
-0.01617616894773958 
0.006221767611705375 
-0.006667604542885154 
0.01302732216065559 
0.01891842492897511 
-0.003824643517392281 
-0.01302158841474691 
-0.02231278384194182 
-0.01058025768524079 
-0.01093624506432834 
0.009417532011270048 
0.01798221515902578 
0.03916779671003683 
0.003813077311259088 
-0.01205757157285305 
0.001830949949924062 
-0.005208141502276531 
-0.02363878902895275 
0.005116946777002401 
0.03991611161834391 
0.01211106174459413 
-0.01377202650930349 
0.01208032206080831 
0.01575126933970916 
-0.03311505257854098 
-0.02360444477066331 
0.0323515970001416 
0.0505716340374868 
0.03790491249307431 
0.01019057771463329 
0.01322962384820551 
0.02441769916052972 
-0.04547492934098361 
-0.01936652888564422 
0.02786913940898695 
0.04596875888271915 
0.03639459048190397 
-0.006771795034898721 
-0.005002974419697802 
0.009187935441148817 
-0.02225717052043525 
-0.01282934459968055 
0.0206604499689917 
0.03502478536470114 
0.02215777149918605 
-0.004376690283305239 
-0.007859123497395638 
-0.01564902342779383 
-0.01673902188376667 
-0.01748997652413722 
0.00993162796140013 
0.01739458806426629 
0.05015785347289281 
-0.0006417963762969731 
-0.0151856870573195 
-0.007424436455301735 
0.02515866306437399 
3.362345291018505e-05 
0.006645258284432618 
0.003333974092846188 
0.002020213873156539 
-0.03406190762548055 
-0.007524080712080127 
-0.01686089259472396 
0.03138026093993825 
0.02021863232560731 
-0.004665798917799995 
-0.009748314747235493 
-0.008045411552942555 
0.006571648199327584 
0.008607897555982786 
0.008435768837434592 
0.004970398364938818 
0.007242990858819107 
0.001847470336404789 
-0.004775132527090392 
0.00309801849439102 
0.003656006127402652 
-0.006021597585253969 
-0.01403698840740919 
-0.0173951064348593 
-0.01080876227679313 
0.0008294684934956912 
-0.0003222012022622453 
0.03406729607267305 
-0.01127357596894252 
-0.003321771701219256 
-0.02633058069028107 
-0.02334551802682267 
-0.03774665352041569 
-0.0162526605201636 
0.0161229999568922 
0.02820147148013741 
-0.008577990621077612 
-0.005249588030931412 
-0.02283126750011163 
-0.01053962709180689 
-0.03669830980097618 
0.001810708550065639 
0.04433455242245631 
0.02016077685041863 
0.006971334068711969 
0.01524490075894 
0.02032918989066465 
-0.01655452347134135 
-0.04459385707106144 
-0.003012279809345024 
0.02970305872273834 
0.005624003624415126 
0.01075164433241068 
-0.01151613047571963 
-0.002754242929966744 
-0.02031386046129024 
-0.04512151463696155 
0.01441968952409821 
0.04744735998242984 
0.02640471677553667 
-0.000915030088769412 
0.006368913245843145 
0.008893012522641861 
-0.01789158633251364 
-0.02041891874162837 
0.01322251346781423 
0.004506530310094527 
0.01303524909536875 
0.01051486697823049 
-0.004511892504795029 
-0.006613898134859849 
0.0009842118436206263 
-0.01588986722803796 
0.007122050678620926 
0.006298689402793452 
0.01764367657639912 
-0.0196110260487508 
-0.007477085731746008 
-0.001307230856530059 
0.005090059500970585 
0.01550530356524127 
0.01420659208123237 
0.01259105213885695 
0.002310483255042676 
-0.03157651535808847 
-0.02069274447482054 
-0.0256602350353338 
0.01523320286679864 
0.01152464337309506 
0.01228870794519368 
-0.008240782978615628 
-0.005056640717337618 
-0.009366533955156591 
0.004380054920412597 
0.0003542542418667359 
0.01629940067212786 
0.02878956355988683 
-0.01309632841408742 
0.009485873263850808 
-0.02100563726168888 
-0.008382769965910052 
-0.01780244016321448 
-0.01132126260351423 
0.01107803922770392 
0.0002919249278848347 
-0.0311273910609398 
-0.00274957800541238 
0.01629674702284819 
0.0003394072602146931 
-0.01869508805648559 
-0.02398340686651756 
-0.01314505311063046 
-0.04751261311392979 
-0.03828255128647107 
0.01698757700624514 
0.03405213155395496 
-0.01861276573922062 
-0.005197392030968235 
-0.01898833189158227 
-0.03209385725183316 
-0.01157680249682449 
-0.01697198322466494 
0.04920084882670231 
0.009727659010106259 
-0.001507633166310946 
-0.00638417045758319 
-0.005907161500390867 
-0.01446881332967329 
-0.03655897670637617 
0.004939825701833759 
0.04126092118316144 
0.0178621595183977 
-0.01120285825664131 
0.005199537288922663 
-0.00624458548457668 
-0.01239414984817769 
-0.009915001683210148 
0.005268372990540027 
0.02833726665376032 
0.02522311018875679 
0.003358228406287037 
-0.01510183415015812 
-0.02086896159863339 
-0.01315280942855552 
-0.006445938903941918 
0.01230958492620884 
0.02189991859352667 
0.01179090673154877 
-0.01128138055469606 
0.007810132910775009 
-0.006244748814110392 
-0.003983960859532517 
-0.007055190643152086 
-0.002094644381827489 
0.014403721068859 
0.02008678133285459 
-0.00614636061392084 
0.005436453138402671 
-0.00958263186836399 
0.01186485742817925 
0.01715126207971164 
0.006700307720476069 
0.01081994459083367 
-0.004805539611687789 
-0.006373552414804035 
-0.00846591787351474 
-0.009811593397038951 
0.01869571320256274 
0.01560377555032364 
0.03025351297439503 
-0.001600141289082785 
-0.009608641984744462 
-0.001919343894523196 
-0.005930314534724044 
-0.001593012270727313 
0.002327535279599496 
0.0242284269440138 
-0.005632710663998866 
0.007261161932139055 
-0.01605664836194983 
-0.02791385910823491 
-0.01518997044781058 
0.01186347169354072 
-0.005513952116359442 
-0.003250749771216938 
-0.02334896579000955 
0.0108279475293206 
0.002980959578497808 
-0.005695021446574725 
-0.02002401585386736 
0.0008437384775687096 
-0.004577612293613729 
-0.02519364867647515 
-0.02216451943900119 
0.01702746375388323 
0.02178080724837491 
0.009160432824737172 
-0.003190086173877301 
-0.01365143154600506 
-0.01415872549608299 
-0.03676299082593656 
0.01012806234896307 
0.03326461818413205 
0.01838602851004467 
-0.01007409608448853 
-0.01492525958853057 
-0.01379486601248238 
-0.02507172936758762 
-0.01374539715724736 
0.01374761056402994 
0.03832074227792454 
0.03222626048049732 
0.002069770409638755 
-0.00260076658692459 
-0.01157424011845528 
-0.04437957548707297 
-0.01450912843350074 
0.007226317762642765 
0.03770191348204417 
0.02085486501430395 
0.0008893475059012283 
0.0009590638693819373 
-0.01409569360481668 
-0.03979110288048193 
-0.006112953665195171 
0.006388684296641692 
0.02066727193110985 
0.0173008814645951 
-0.003998809826252217 
0.01666486746116792 
0.001411120224262385 
-0.01030176188268061 
-0.01874384736632279 
-0.001888231396904884 
0.004787188831432206 
0.00700831626587353 
-0.005015726593508544 
0.007313508696066711 
0.006109611754015594 
-0.005780904640384812 
-0.0163629711559919 
-0.006385663095632193 
0.0002463223462743931 
-0.01315226781362426 
-0.001758487805678618 
0.01033245590222655 
-0.00309947433665978 
-0.003834537935882999 
-0.001837519073255797 
0.008875268728739559 
0.01586103551526798 
0.01947433817171599 
-0.006410237314394453 
0.01183542640381752 
-0.008126782836836198 
-0.004429431927204781 
0.0130583190777806 
0.003194003194860291 
0.007609353860942565 
-0.01066142902589794 
-0.01303726439482188 
0.005284145107155081 
0.004377615189937826 
-0.02452106889257759 
0.005251886539859906 
-0.0232362471105168 
-0.009491897691683444 
0.002657032378213872 
0.01758618554551753 
0.005442310848683609 
-0.004201156474452952 
-0.03531002935974226 
-0.02282529131019021 
-0.02398726408196003 
-0.01490728270920928 
0.01417302266648854 
0.0062586060557368 
0.01464369178555637 
-0.0008355052812938705 
-0.03312178193361145 
-0.02231776706218848 
-0.001260330893614227 
0.02062186996954971 
0.007406295201181546 
0.00653041010174697 
0.01660055466625053 
0.0126979283776072 
-0.005919660608315643 
-0.02481081899126407 
0.004591062722444684 
0.002493587530620919 
0.015838274706082 
-0.006673019858097025 
0.01750901150016878 
0.02264814481188003 
-0.01791219164059806 
-0.03565627310873298 
-0.01715743962147928 
0.02430168708835712 
0.003156640274458276 
0.02477232479261272 
0.01483101797234498 
-0.003958147892604131 
-0.0206591339339455 
-0.03397017840929693 
-0.02308166125412131 
-0.00704905576108454 
0.02748164787872179 
0.02084999105540408 
0.02401000100852116 
-0.004400204735073166 
-0.01649408275255249 
-0.02372581494704629 
-0.01148680790381105 
0.01222066788994572 
0.01560361792589151 
0.002965631124043658 
0.01306608672830141 
-0.003694314454258434 
-0.02650747217433253 
-0.0190934686687748 
-0.01363814439612967 
0.005963538284083276 
-0.001839881664300497 
1.211076852146103e-05 
0.006851381718744396 
0.006197816150314363 
-0.02272922245679766 
0.00319877742604944 
-0.01168101608749811 
0.01331485909225953 
-0.0154027721380311 
-0.02064221451203458 
-0.01055946421433922 
-0.01360038335286772 
0.001452278114842149 
0.02847781782087277 
0.006535245035222415 
-0.009955274438804668 
-0.03438635291483699 
-0.01193432781805995 
-0.006302247160292639 
-0.008100057662735149 
-0.01282182833796376 
0.008025650372360986 
0.006487715932772005 
-0.02233337276386244 
-0.006192349700031582 
0.009723174852386978 
0.01564741071278101 
0.0100446754957861 
-0.006692870818701672 
-0.02464748662055309 
-0.008457391007426403 
-0.03169556124649592 
-0.007809770092968345 
-0.005026106416330885 
0.0539290095021679 
0.01177463398799817 
-0.02056256711925887 
-0.02784878480515004 
0.009597418430928779 
-0.01597355483128315 
-0.0191942164654158 
-0.01042861855351194 
0.06544422875577285 
0.01818681485218881 
-0.009099857750637232 
-0.04131138042731573 
0.02007052435532179 
0.002676291091477648 
-0.0183610239210401 
0.00469886624377692 
0.05468330784663668 
0.03380417774204612 
0.006734087703685554 
-0.04643245293096161 
-0.01305595059710451 
-0.007554181714123883 
-0.000633272695385161 
0.0296017255854772 
0.0168207458508235 
-0.000104441063496342 
0.01157109286699146 
-0.03116307468733619 
-0.02572397249646161 
-0.02471073933303175 
0.005107205994884126 
0.01153517209974962 
0.02107566398348794 
0.007895706430248303 
0.0001426859231579376 
-0.01494772497605036 
-0.02144881614108219 
-0.02059217525339978 
-0.002350394200910121 
-0.01441543624661256 
0.01321255398090971 
-0.01596898851360715 
-0.0005216845996439814 
-0.0005391932912175237 
-0.01104141519672684 
-0.00609726097717964 
-0.01059248622657888 
0.002252842091877132 
-0.007261776269873709 
-0.0112692818902857 
0.0160860914555838 
0.02948848289838203 
-0.0177101750541937 
-0.006508322471110996 
-0.001521027049467067 
-0.01003174998933706 
-0.0166376971889386 
-0.029717644269812 
0.02058229110072765 
0.02583969773406522 
-0.006759798096842546 
-0.02199954520676186 
-0.03702783148155459 
0.01464046825822835 
-0.01520201663029313 
-0.01890666494500538 
0.005262603681679768 
0.006520003764311822 
-0.01632006521403508 
-0.01658322843681588 
-0.01320552281379094 
0.003209916476111767 
-0.004826340447664976 
-0.007534880254638185 
-0.007162326751542707 
-0.009111508394677335 
-0.01734735208058931 
-0.002704518069056921 
0.004145140270878146 
0.01428394563164944 
0.04127988507664604 
0.01398640981522407 
-0.03036163230190285 
-0.04792355268837831 
-0.006849383932050666 
-0.01320149904318211 
-0.00854796174930521 
-0.008820602562125015 
0.05300716886166057 
0.01664810685291106 
-0.0265373277899602 
-0.04490497558665908 
-0.01627522667955239 
-0.008350136693402963 
-0.005890480385241283 
-0.002829505846847229 
0.04348942201804232 
0.03150605723283647 
0.00207277471406934 
-0.01498776017815957 
-0.02348526692523744 
-0.01560465125110311 
-0.02899002422840916 
0.02111846078963358 
0.02415988998610846 
0.03433163027783058 
0.005004395643744907 
-0.0242099453637318 
-0.03103895846628763 
-0.024974069912017 
-0.02830635260853709 
-0.008377192372325377 
0.03203066786309231 
0.02103264577858664 
0.01434970294741718 
-0.01171464001685738 
-0.01740513675516148 
-0.02617919919538281 
-0.01827196800913135 
-0.01377643124352936 
0.01090579848581273 
0.02068164917329398 
0.02538995467301962 
0.002650577635937067 
-0.02902835438234283 
-0.03049902386502614 
-0.02886489014226261 
-0.01561987176464224 
-0.00650550521385357 
-0.01291373749477441 
0.0300563721549003 
0.0161968321225151 
-0.01707482095158688 
-0.01784665097615412 
-0.03944476268695318 
-0.03277757523046605 
-0.01206859137554715 
-0.02406266785279875 
0.02812684845809171 
0.03415429523950713 
-0.007203812058180202 
-0.008519096948769804 
-0.02336935505049121 
-0.001101165571437921 
-0.0123584326996811 
-0.01905847791973909 
0.01214630509741909 
0.007188783729020946 
-0.02426901026461181 
-0.01445977341087092 
0.009443088741708143 
0.008052908375475279 
-0.001177315912913133 
-0.001287047434477556 
-0.01401469131945434 
-0.02828706880844646 
-0.0161762513251742 
-0.00671282323145616 
0.02498236683351629 
0.03231524427138225 
0.0113593847379887 
-0.01178612798781853 
-0.03384565393761565 
-0.04737720713887047 
-0.01862690255613326 
0.02096299320485699 
0.03041658685913527 
-0.009808830076761409 
0.02542433224709503 
0.007442790855999078 
-0.03061889319101916 
-0.04023557759726474 
-0.03116478249722818 
0.01477011293410001 
0.0101754135023437 
0.02291209931549152 
0.02293333644497388 
0.02645207692127314 
-0.005547127648130292 
-0.03780656259906191 
-0.03449130111541767 
0.0005588638207703961 
-0.01587242176586367 
0.008376090267469553 
0.01960926765827434 
0.04011366894917424 
-0.01986096300629393 
-0.0191805620260946 
-0.03233402849472204 
-0.01404377605762826 
0.009719890999094224 
0.01193705898558102 
0.02342511150397726 
0.0203117517319032 
-0.01990408163812353 
-0.03491316518373875 
-0.03574399404870512 
-0.02401305002870061 
-0.008307095318436208 
0.02518605527038799 
0.03352099535344869 
0.01777918030299502 
0.006984250646964155 
-0.02290739085439747 
-0.03325287034570641 
-0.03332201690415231 
-0.01479597226842241 
0.002911133689372713 
0.01816853881595266 
-0.01630169551693248 
0.02494676238903837 
-0.01198535629293511 
-0.03451823898125946 
-0.01975647074643294 
-0.03347312222782981 
-0.007228615013646855 
-0.004961074380755297 
-0.01492007538534656 
0.01978230643419782 
0.01417733398968109 
-0.0110250718546244 
0.008976794887333078 
-0.01934729202318845 
0.005090711841496801 
-0.01075610832153791 
-0.02656591148014332 
0.01180976553373712 
-0.01088330381056957 
-0.01631493654417156 
0.01040258280615232 
0.00215526166767152 
-0.0027382088004798 
-0.003572913025358188 
-0.02266543946892436 
-0.006350165793072925 
0.001358188582551421 
-0.004763873792620169 
0.01008131527584175 
0.009686486963952598 
0.006341802340643412 
0.007819742153338187 
-0.02016032493095939 
-0.01984697750645781 
-0.02288855337856871 
-0.0158727732263265 
0.01863912677767042 
0.02163021276096922 
0.009438022550710249 
0.01750114755247019 
-0.01901048878885226 
-0.02330361143484204 
-0.03668141714296392 
-0.01587247795353565 
0.02249700771923459 
0.0254458297269242 
0.01931560571049528 
-0.001928967346623016 
-0.009075175498876124 
-0.02490607749561894 
-0.02805405614756477 
-0.006035991518906439 
-0.007939471011814038 
0.0124612979781502 
0.001420302009754088 
0.005089087330175184 
0.01359251827102092 
-0.01946946133699588 
-0.03195770976597851 
-0.008604685225174036 
-0.003684873252517488 
0.01751321105038561 
-0.00517346940576834 
0.04418668989603207 
0.03130285693580673 
-0.00804768448281009 
-0.05167868730033253 
-0.02199985493126201 
-0.007940442571662659 
-0.01046233203441538 
0.00559483659660263 
0.0295240174433065 
0.000948455041681263 
-0.01321282185585721 
-0.02817751944997183 
-0.03225518382057544 
-0.01926951457676093 
-0.009568557274976668 
0.01905872037604698 
-0.005833319161444969 
-0.01791867724424668 
-0.008796506706713895 
-0.05361891907523146 
-0.02778226739619334 
-0.005815676874319584 
0.017462814744922 
-0.03771637212769289 
-0.004580832516338119 
-0.01367617993883899 
0.01778799282057486 
0.01757458780402205 
-0.0006780814201250134 
-0.01477931398682658 
-0.02688154578992467 
-0.01010720445777028 
-0.0140483426111995 
-0.02758432065710133 
-0.003834862790734142 
-0.007368214905326919 
0.006474819419262692 
0.007423397977393507 
0.01026331991971734 
0.01103204722255139 
-0.0009065734167164109 
-0.01129628188518038 
-0.01116523572803032 
-0.02511791315311857 
0.0003117120902542814 
0.01152352963049819 
0.01960948431765702 
0.008268804810191273 
0.01048789044518428 
-0.0267513944653511 
-0.03349794970747183 
-0.02523261702446584 
0.003837319541558883 
0.004514674180421273 
0.03306906648958693 
0.01195098127088669 
0.01245701434664221 
-0.01616751800382064 
-0.01654352315868396 
-0.01302335313414912 
-0.01064462173667297 
0.003785470091635295 
0.02134583226546317 
0.03108189341084877 
-0.00989571476708275 
-0.02841495897842056 
-0.01156487848922135 
-0.02595871367767386 
-0.00882345296429384 
0.0005264475804374185 
0.01579381637337941 
0.004918484031925944 
-0.00140689582872514 
-0.02269494778721974 
-0.01368395371776778 
-0.002627658868364998 
-0.009555980391774488 
0.005663707780857025 
0.01656138735015296 
0.01147407755668761 
0.0009052650829620566 
-0.01084673535115277 
-0.0129534126306901 
-0.03918030396854014 
-0.0007011442470926192 
0.02272367644373253 
0.01359603018783854 
0.008745975375929936 
0.009920524844064691 
-0.01408461434425719 
-0.03263998139133049 
-0.04009848639862851 
-0.01119896282308158 
0.01514828969608933 
0.01615143588626623 
0.003094953921199598 
-0.01489987632364505 
-0.02683596982198167 
-0.0168830824882713 
-0.03004058316293998 
-0.01486508106428066 
0.01041177092867776 
0.02131009882836578 
-0.01803295944732711 
-0.00256495224951903 
0.02720004073290504 
0.0006919063301002242 
0.007942669647818517 
0.01309380096255748 
-0.01670220319170871 
-0.02552750408736002 
-0.01630621768425252 
-0.01519768099820008 
0.005871220663752459 
0.00506775540730269 
-0.003290385741482502 
0.0127253817478836 
-0.005403981989778839 
-0.006745732247229199 
-0.007487531856024562 
0.005817276586852735 
-0.004158819822721292 
0.0003085095783097705 
0.003939462472758517 
0.01273633279021371 
0.001062344929324111 
-0.00018888880687878 
-0.006804873137248461 
0.008469052833563443 
-0.01144337240490643 
-0.008991917321832082 
-0.009713907394604223 
0.01781497103768952 
0.003339646340837792 
0.01826781783988099 
0.0109194482412562 
-0.01309028614953031 
-0.01437959654858888 
-0.00452446522531263 
-0.0002167708288506255 
0.02297731195796715 
0.01471930869988545 
0.01180865614159425 
0.009744818480074321 
-0.0007533721803018101 
0.0002115253859960851 
-0.01949806821898455 
0.008137922792909848 
0.01968993669604391 
0.0146524816097625 
-0.03147774136083545 
-0.01193309197986547 
-0.004602563646819012 
-0.0147045142371666 
-0.02703020402558831 
0.01787930382642469 
0.04075716673898585 
-0.003367137685502693 
-0.008189145737050903 
-0.00504176586252346 
-0.01146887608284277 
-0.01034472141615186 
-0.02071365750927206 
-0.01268051638616957 
0.03847237464615553 
0.008294450256939541 
-0.0004186519561490276 
0.003167505003176796 
-0.006635554844322012 
-0.0213224206435405 
-0.01712846634277299 
-0.03271835119285554 
0.02014559967056479 
0.0368708686726257 
0.008957114190527587 
0.01765319856914509 
-0.01302664615015753 
-0.02562518521870269 
0.0004805886647074021 
-0.01472171459229008 
-0.01164037700260418 
0.0002329637732294244 
0.0119597800638507 
-0.02655819521874535 
-0.00531235979660235 
0.03513373575467899 
0.02870040630387571 
-0.0117135996765869 
-0.02210939816982366 
-0.02776869961382929 
-0.04015462716029294 
-0.03579823376262639 
-0.0222521143709747 
0.006786212074731833 
0.04566401554503605 
0.01996578124068083 
-0.03416674238850756 
-0.04925032445897951 
-0.04371406079524227 
-0.03969802469391374 
-0.03806992089215836 
-0.01124484438716122 
0.06260908117331096 
0.02922499621060456 
-0.0359025947387125 
-0.04636131123722331 
-0.05343122864068844 
-0.0417002201847442 
-0.03160699900033599 
-0.02205280090313189 
0.05722746029683257 
0.03693923102738295 
-0.006762711779117189 
-0.03339370271586302 
-0.0510658875477557 
-0.04140901524034902 
-0.03370635250199228 
-0.03424806288436794 
0.06304371881810662 
0.05436511753083947 
-0.0070317708731386 
-0.03019060632707342 
-0.035769760266963 
-0.04978646466810015 
-0.03818474819671307 
-0.03581859617961031 
0.05130396897966272 
0.0544171741748933 
0.004929345944419408 
-0.03316893512096604 
-0.04488099019798249 
-0.04636188999322947 
-0.03431290015573293 
-0.02193225488126417 
0.04081731407178899 
0.04871133155056277 
-0.01199434112311966 
-0.04968569239466332 
-0.03388855158875994 
-0.0490043651465571 
-0.05021886686918187 
-0.02621592692658237 
0.04575742817968122 
0.04636286365155746 
-0.01558412542376199 
-0.0371380947218373 
-0.04994428157093287 
-0.03945778902773789 
-0.02947394655458029 
-0.01886245892161619 
0.01619999845553199 
0.0392171832676203 
-0.01101555883541233 
-0.01908174337389016 
-0.03219289604490318 
-0.01334932745174071 
-0.03590449925876055 
-0.03554350282727568 
0.006064175336147364 
0.006113655947037988 
0.004657811922678264 
0.002945761792998181 
-0.008372972761593739 
0 
